<?xml version="1.0"?>
<opencv_storage>
<cascade>
  <stageType>BOOST</stageType>
  <featureType>LBP</featureType>
  <height>100</height>
  <width>50</width>
  <stageParams>
    <boostType>GAB</boostType>
    <minHitRate>9.9500000476837158e-01</minHitRate>
    <maxFalseAlarm>5.0000000000000000e-01</maxFalseAlarm>
    <weightTrimRate>9.4999999999999996e-01</weightTrimRate>
    <maxDepth>1</maxDepth>
    <maxWeakCount>100</maxWeakCount></stageParams>
  <featureParams>
    <maxCatCount>256</maxCatCount>
    <featSize>1</featSize></featureParams>
  <stageNum>16</stageNum>
  <stages>
    <!-- stage 0 -->
    <_>
      <maxWeakCount>2</maxWeakCount>
      <stageThreshold>1.1477746814489365e-01</stageThreshold>
      <weakClassifiers>
        <_>
          <internalNodes>
            0 -1 29 -85263680 -22348808 -1078264204 -12931082
            -1427444140 -67440641 -1091046571 -1145045129</internalNodes>
          <leafValues>
            -7.1090048551559448e-01 9.3182933330535889e-01</leafValues></_>
        <_>
          <internalNodes>
            0 -1 21 -1886393085 -1884311645 -1614807261 -1615859933
            -1389376117 -810553565 -1624265301 218557699</internalNodes>
          <leafValues>
            -6.9663715362548828e-01 8.2567793130874634e-01</leafValues></_></weakClassifiers></_>
    <!-- stage 1 -->
    <_>
      <maxWeakCount>2</maxWeakCount>
      <stageThreshold>8.4883347153663635e-02</stageThreshold>
      <weakClassifiers>
        <_>
          <internalNodes>
            0 -1 26 -1364267264 -1884311796 1103029536 -1372641532
            -1900020016 -361759148 -2281 -272633065</internalNodes>
          <leafValues>
            -7.9500001668930054e-01 9.3121951818466187e-01</leafValues></_>
        <_>
          <internalNodes>
            0 -1 44 -2046303777 268566551 0 285396995 17629184 142737408
            65536 1606396607</internalNodes>
          <leafValues>
            -6.4408707618713379e-01 8.7988334894180298e-01</leafValues></_></weakClassifiers></_>
    <!-- stage 2 -->
    <_>
      <maxWeakCount>4</maxWeakCount>
      <stageThreshold>2.5258812308311462e-01</stageThreshold>
      <weakClassifiers>
        <_>
          <internalNodes>
            0 -1 49 -805312495 -545784763 1073739121 809727029 205485348
            123174263 7405616 217907</internalNodes>
          <leafValues>
            -5.7457214593887329e-01 9.1297972202301025e-01</leafValues></_>
        <_>
          <internalNodes>
            0 -1 20 -425011904 -669859485 -1442758655 -1017659381
            -460660352 -2145238967 -2071510525 180078731</internalNodes>
          <leafValues>
            -7.5058650970458984e-01 7.6978695392608643e-01</leafValues></_>
        <_>
          <internalNodes>
            0 -1 19 -281549053 -672947294 -273179677 -82844894 -5275743
            -2145143421 1319631715 -1014529885</internalNodes>
          <leafValues>
            -5.7855480909347534e-01 7.9301381111145020e-01</leafValues></_>
        <_>
          <internalNodes>
            0 -1 3 -286009545 -898957340 -407371979 -597754043
            -168296587 1157627512 -419958015 -176958363</internalNodes>
          <leafValues>
            -5.7999813556671143e-01 7.8473293781280518e-01</leafValues></_></weakClassifiers></_>
    <!-- stage 3 -->
    <_>
      <maxWeakCount>4</maxWeakCount>
      <stageThreshold>1.7821255326271057e-01</stageThreshold>
      <weakClassifiers>
        <_>
          <internalNodes>
            0 -1 31 -22348716 -21325602 -4196875 -4463115 -1095848362
            -1140912298 -83937961 -1140972686</internalNodes>
          <leafValues>
            -6.4814811944961548e-01 8.8840997219085693e-01</leafValues></_>
        <_>
          <internalNodes>
            0 -1 35 -155516940 -1078972419 -12648648 -1154994374
            -285216835 -893927433 -4870352 -2026688749</internalNodes>
          <leafValues>
            -5.4499053955078125e-01 8.1365942955017090e-01</leafValues></_>
        <_>
          <internalNodes>
            0 -1 42 -231744605 1396157235 -524493 -215287885 -943744527
            -13451469 -134218817 -1560051549</internalNodes>
          <leafValues>
            -5.6473881006240845e-01 7.6012581586837769e-01</leafValues></_>
        <_>
          <internalNodes>
            0 -1 56 -1059070203 5394463 453053963 9568835 -2120609231
            1108050376 -1055080288 144689951</internalNodes>
          <leafValues>
            -6.8930858373641968e-01 6.1122548580169678e-01</leafValues></_></weakClassifiers></_>
    <!-- stage 4 -->
    <_>
      <maxWeakCount>4</maxWeakCount>
      <stageThreshold>1.5637829899787903e-01</stageThreshold>
      <weakClassifiers>
        <_>
          <internalNodes>
            0 -1 30 -353828976 -1078263809 -65547 1069285371 -1427177643
            -327681 -1342177283 -1910837249</internalNodes>
          <leafValues>
            -6.8421053886413574e-01 8.8369876146316528e-01</leafValues></_>
        <_>
          <internalNodes>
            0 -1 9 -822161424 -56705165 -1118240 -1440075990 1325383679
            1075589119 1207938796 1176220976</internalNodes>
          <leafValues>
            -6.3058495521545410e-01 7.3281604051589966e-01</leafValues></_>
        <_>
          <internalNodes>
            0 -1 46 -214437583 -793268109 2013230075 1941107625
            -213913159 -1105749583 -1275332290 -527978479</internalNodes>
          <leafValues>
            -6.2439894676208496e-01 7.0589691400527954e-01</leafValues></_>
        <_>
          <internalNodes>
            0 -1 4 -747184737 -760398326 -1090770382 -6886750 -553783040
            -2138081323 -1271527855 -202910911</internalNodes>
          <leafValues>
            -5.2454471588134766e-01 7.3217177391052246e-01</leafValues></_></weakClassifiers></_>
    <!-- stage 5 -->
    <_>
      <maxWeakCount>4</maxWeakCount>
      <stageThreshold>2.9131156206130981e-01</stageThreshold>
      <weakClassifiers>
        <_>
          <internalNodes>
            0 -1 14 -353498108 -1414385857 -2013249729 732573539
            1224527868 -1627602945 -973127682 67056443</internalNodes>
          <leafValues>
            -6.7398118972778320e-01 8.8854342699050903e-01</leafValues></_>
        <_>
          <internalNodes>
            0 -1 17 -123538256 -142938374 -509451099 568421039
            -243272533 -167772161 36111630 662644911</internalNodes>
          <leafValues>
            -4.9725848436355591e-01 7.9832065105438232e-01</leafValues></_>
        <_>
          <internalNodes>
            0 -1 22 -5570568 -4542964 -4477127 -1087819989 1824325580
            -843149394 -294715587 -314708161</internalNodes>
          <leafValues>
            -5.6861937046051025e-01 7.6364016532897949e-01</leafValues></_>
        <_>
          <internalNodes>
            0 -1 43 -148206320 292368134 754870879 425938493 758631389
            -1879408769 -1888567393 -1992644241</internalNodes>
          <leafValues>
            -5.8516836166381836e-01 7.3559153079986572e-01</leafValues></_></weakClassifiers></_>
    <!-- stage 6 -->
    <_>
      <maxWeakCount>5</maxWeakCount>
      <stageThreshold>-3.2867211103439331e-01</stageThreshold>
      <weakClassifiers>
        <_>
          <internalNodes>
            0 -1 18 163298611 801111867 801091451 800975932 255836095
            -1883246597 180333979 137071673</internalNodes>
          <leafValues>
            -4.9579831957817078e-01 8.8752114772796631e-01</leafValues></_>
        <_>
          <internalNodes>
            0 -1 50 -1207975969 -25813506 1073477621 1710348245
            233223579 662126353 94977810 18028343</internalNodes>
          <leafValues>
            -5.2059531211853027e-01 7.6062476634979248e-01</leafValues></_>
        <_>
          <internalNodes>
            0 -1 33 8851487 -653098863 1090552219 521142552 36274940
            478232577 1346406556 1594359992</internalNodes>
          <leafValues>
            -6.5982979536056519e-01 6.2185019254684448e-01</leafValues></_>
        <_>
          <internalNodes>
            0 -1 12 -936713033 -580127561 -1380582150 -34650884
            -2130772868 -1896546314 -1929904653 -862599948</internalNodes>
          <leafValues>
            -5.8753538131713867e-01 6.7171102762222290e-01</leafValues></_>
        <_>
          <internalNodes>
            0 -1 16 1359206399 -653389823 35480 560006238 -1476255612
            138543616 50757792 1901980667</internalNodes>
          <leafValues>
            -6.8906551599502563e-01 5.5176728963851929e-01</leafValues></_></weakClassifiers></_>
    <!-- stage 7 -->
    <_>
      <maxWeakCount>5</maxWeakCount>
      <stageThreshold>-2.5612109899520874e-01</stageThreshold>
      <weakClassifiers>
        <_>
          <internalNodes>
            0 -1 24 -851980 -139284792 -67174850 -1950703576 -340 -9
            783224320 717096494</internalNodes>
          <leafValues>
            -5.8552628755569458e-01 8.7654906511306763e-01</leafValues></_>
        <_>
          <internalNodes>
            0 -1 28 -1558011969 -537559116 -17399819 -571421848
            -365117971 -1900087308 208934324 92292336</internalNodes>
          <leafValues>
            -4.9077868461608887e-01 7.5230121612548828e-01</leafValues></_>
        <_>
          <internalNodes>
            0 -1 32 -285340067 -1140969474 -1344917635 -1138217348
            -1392525377 -1073807364 -1610664008 -173011456</internalNodes>
          <leafValues>
            -5.8121967315673828e-01 6.7304480075836182e-01</leafValues></_>
        <_>
          <internalNodes>
            0 -1 55 1377157341 1593938049 20507 268832907 1887584685
            1207967874 -2146854200 146523658</internalNodes>
          <leafValues>
            -6.1219614744186401e-01 6.5428286790847778e-01</leafValues></_>
        <_>
          <internalNodes>
            0 -1 23 -452201473 -503054328 -1844309869 -603286782
            -401940288 -930608640 16973840 -779059200</internalNodes>
          <leafValues>
            -6.5764284133911133e-01 5.5152428150177002e-01</leafValues></_></weakClassifiers></_>
    <!-- stage 8 -->
    <_>
      <maxWeakCount>5</maxWeakCount>
      <stageThreshold>-3.3126264810562134e-01</stageThreshold>
      <weakClassifiers>
        <_>
          <internalNodes>
            0 -1 25 -436219696 -1191192256 -1208486571 -1493190817
            -1157907886 511581012 1945531991 1398683138</internalNodes>
          <leafValues>
            -4.8852458596229553e-01 8.6984503269195557e-01</leafValues></_>
        <_>
          <internalNodes>
            0 -1 34 -289738764 -1096142868 -65544 -1078448376 -805306371
            -20483 -33702124 -1657463504</internalNodes>
          <leafValues>
            -5.9500938653945923e-01 6.9431823492050171e-01</leafValues></_>
        <_>
          <internalNodes>
            0 -1 0 -682101985 -259851485 165011 608691347 1342267440
            1342177576 1075839114 1080231787</internalNodes>
          <leafValues>
            -6.3256448507308960e-01 6.1058557033538818e-01</leafValues></_>
        <_>
          <internalNodes>
            0 -1 53 -1884839113 29529733 1874793777 287699887 540541065
            624905 159347867 -1073762497</internalNodes>
          <leafValues>
            -5.8284080028533936e-01 6.7530179023742676e-01</leafValues></_>
        <_>
          <internalNodes>
            0 -1 6 -1556873677 -616463468 -1878978479 -805236664
            671256850 -1062633344 1670058048 -12467936</internalNodes>
          <leafValues>
            -5.8624053001403809e-01 6.0930699110031128e-01</leafValues></_></weakClassifiers></_>
    <!-- stage 9 -->
    <_>
      <maxWeakCount>5</maxWeakCount>
      <stageThreshold>-4.1906362771987915e-01</stageThreshold>
      <weakClassifiers>
        <_>
          <internalNodes>
            0 -1 10 -357894213 -554893962 -1049103 -33555216 -1930101249
            -293668882 -956825616 -990522144</internalNodes>
          <leafValues>
            -3.2720589637756348e-01 8.0906593799591064e-01</leafValues></_>
        <_>
          <internalNodes>
            0 -1 54 99811749 94371844 1350635589 297956837 -779119987
            151028018 44059283 -41424177</internalNodes>
          <leafValues>
            -5.5092090368270874e-01 6.6999018192291260e-01</leafValues></_>
        <_>
          <internalNodes>
            0 -1 41 285481235 1494220800 -2145316581 360857682
            -1198423809 -2011594750 288065933 425715852</internalNodes>
          <leafValues>
            -6.2425380945205688e-01 6.0308957099914551e-01</leafValues></_>
        <_>
          <internalNodes>
            0 -1 15 -1496384769 -652394486 69890 -1321058046 -2146787193
            -897548288 1082393417 -1114550015</internalNodes>
          <leafValues>
            -6.6060197353363037e-01 5.8430111408233643e-01</leafValues></_>
        <_>
          <internalNodes>
            0 -1 51 -648286636 1560936515 1610875213 1351057689
            -788412184 -2013224960 -1681333832 -1203178950</internalNodes>
          <leafValues>
            -6.0727518796920776e-01 6.0764706134796143e-01</leafValues></_></weakClassifiers></_>
    <!-- stage 10 -->
    <_>
      <maxWeakCount>4</maxWeakCount>
      <stageThreshold>-9.2338585853576660e-01</stageThreshold>
      <weakClassifiers>
        <_>
          <internalNodes>
            0 -1 47 -16822433 1932951423 2147448830 863665790 -8407180
            1924661115 -1073743444 422625208</internalNodes>
          <leafValues>
            -4.2250531911849976e-01 7.8417265415191650e-01</leafValues></_>
        <_>
          <internalNodes>
            0 -1 36 -302084801 1073741501 -16777409 -1107378179
            1878876095 -1125810178 -1199698258 -1469788753</internalNodes>
          <leafValues>
            -4.6236887574195862e-01 7.4799329042434692e-01</leafValues></_>
        <_>
          <internalNodes>
            0 -1 1 -933270689 1079017521 67195137 545916055 1610670617
            1678770194 1246564231 1103577923</internalNodes>
          <leafValues>
            -6.6842734813690186e-01 5.8704960346221924e-01</leafValues></_>
        <_>
          <internalNodes>
            0 -1 48 -202475698 1359315207 71467291 956649867 -2138472315
            -376667648 -355807240 686806184</internalNodes>
          <leafValues>
            -6.2556129693984985e-01 6.1723995208740234e-01</leafValues></_></weakClassifiers></_>
    <!-- stage 11 -->
    <_>
      <maxWeakCount>4</maxWeakCount>
      <stageThreshold>-1.0585191249847412e+00</stageThreshold>
      <weakClassifiers>
        <_>
          <internalNodes>
            0 -1 52 -8392873 2138799999 -1073737105 275964432 1979671840
            -1803682940 -255863608 547940984</internalNodes>
          <leafValues>
            -5.4613465070724487e-01 7.6235145330429077e-01</leafValues></_>
        <_>
          <internalNodes>
            0 -1 39 -5768829 1991768051 1061156863 -67634253 -273679391
            -138952781 2147483583 -444075645</internalNodes>
          <leafValues>
            -5.0724166631698608e-01 7.3781478404998779e-01</leafValues></_>
        <_>
          <internalNodes>
            0 -1 11 -1735466033 16892166 16400 -805240703 177639561
            142770328 -2088167293 -240959228</internalNodes>
          <leafValues>
            -6.2014675140380859e-01 6.5055930614471436e-01</leafValues></_>
        <_>
          <internalNodes>
            0 -1 37 1614975606 822149384 26411167 1392513061 537633444
            -1593835520 1645036 184615583</internalNodes>
          <leafValues>
            -6.9348222017288208e-01 5.7897424697875977e-01</leafValues></_></weakClassifiers></_>
    <!-- stage 12 -->
    <_>
      <maxWeakCount>4</maxWeakCount>
      <stageThreshold>1.4819937944412231e-01</stageThreshold>
      <weakClassifiers>
        <_>
          <internalNodes>
            0 -1 7 1156483040 -939684930 1073479679 251604975 1324279791
            -806359041 251645182 67585159</internalNodes>
          <leafValues>
            -4.8817205429077148e-01 7.9934853315353394e-01</leafValues></_>
        <_>
          <internalNodes>
            0 -1 5 1359446168 1073742080 805505176 834928704 570949777
            8388608 403120520 1340721867</internalNodes>
          <leafValues>
            -6.7481642961502075e-01 6.8816846609115601e-01</leafValues></_>
        <_>
          <internalNodes>
            0 -1 2 -779499749 1498517571 260 -664797054 1619017729 32896
            268438021 -714177980</internalNodes>
          <leafValues>
            -6.1616039276123047e-01 7.1111255884170532e-01</leafValues></_>
        <_>
          <internalNodes>
            0 -1 45 -2130509519 0 1090584771 335544321 -2129820949
            -2013265536 -2146465639 142770378</internalNodes>
          <leafValues>
            -6.8744528293609619e-01 6.9249796867370605e-01</leafValues></_></weakClassifiers></_>
    <!-- stage 13 -->
    <_>
      <maxWeakCount>2</maxWeakCount>
      <stageThreshold>4.7639984637498856e-02</stageThreshold>
      <weakClassifiers>
        <_>
          <internalNodes>
            0 -1 40 -2146271232 68157568 1073775624 -2147467183
            -1073741824 -2147483648 33554624 -1874722665</internalNodes>
          <leafValues>
            -6.2551438808441162e-01 8.6129456758499146e-01</leafValues></_>
        <_>
          <internalNodes>
            0 -1 13 -1459420912 1073742336 2 -805306368 32779
            -1862270976 -2139094896 1140953104</internalNodes>
          <leafValues>
            -8.1365460157394409e-01 8.1657135486602783e-01</leafValues></_></weakClassifiers></_>
    <!-- stage 14 -->
    <_>
      <maxWeakCount>2</maxWeakCount>
      <stageThreshold>1.7379477620124817e-01</stageThreshold>
      <weakClassifiers>
        <_>
          <internalNodes>
            0 -1 38 65696 1090617856 16781312 268435456 -2147450740
            -2147483648 1073741952 1654784</internalNodes>
          <leafValues>
            -7.0383912324905396e-01 9.5320028066635132e-01</leafValues></_>
        <_>
          <internalNodes>
            0 -1 27 33554476 1078267912 1029 67108864 136 0 16386
            301989890</internalNodes>
          <leafValues>
            -7.7940547466278076e-01 9.5265579223632812e-01</leafValues></_></weakClassifiers></_>
    <!-- stage 15 -->
    <_>
      <maxWeakCount>1</maxWeakCount>
      <stageThreshold>1.</stageThreshold>
      <weakClassifiers>
        <_>
          <internalNodes>
            0 -1 8 131072 131072 0 0 0 0 0 553648128</internalNodes>
          <leafValues>
            -1. 1.</leafValues></_></weakClassifiers></_></stages>
  <features>
    <_>
      <rect>
        0 44 7 13</rect></_>
    <_>
      <rect>
        0 45 6 11</rect></_>
    <_>
      <rect>
        3 35 2 3</rect></_>
    <_>
      <rect>
        4 26 4 3</rect></_>
    <_>
      <rect>
        5 31 2 3</rect></_>
    <_>
      <rect>
        5 55 13 15</rect></_>
    <_>
      <rect>
        6 38 2 2</rect></_>
    <_>
      <rect>
        7 4 9 12</rect></_>
    <_>
      <rect>
        7 16 8 23</rect></_>
    <_>
      <rect>
        7 28 11 5</rect></_>
    <_>
      <rect>
        8 19 4 6</rect></_>
    <_>
      <rect>
        8 29 1 7</rect></_>
    <_>
      <rect>
        9 10 4 9</rect></_>
    <_>
      <rect>
        9 23 4 4</rect></_>
    <_>
      <rect>
        9 34 7 8</rect></_>
    <_>
      <rect>
        9 36 1 7</rect></_>
    <_>
      <rect>
        9 43 13 18</rect></_>
    <_>
      <rect>
        9 52 11 9</rect></_>
    <_>
      <rect>
        10 3 6 19</rect></_>
    <_>
      <rect>
        10 3 13 20</rect></_>
    <_>
      <rect>
        10 15 6 22</rect></_>
    <_>
      <rect>
        11 0 10 20</rect></_>
    <_>
      <rect>
        11 25 10 10</rect></_>
    <_>
      <rect>
        11 28 3 3</rect></_>
    <_>
      <rect>
        11 44 9 9</rect></_>
    <_>
      <rect>
        12 17 11 23</rect></_>
    <_>
      <rect>
        12 30 10 12</rect></_>
    <_>
      <rect>
        12 30 12 14</rect></_>
    <_>
      <rect>
        13 13 5 3</rect></_>
    <_>
      <rect>
        13 22 7 20</rect></_>
    <_>
      <rect>
        14 18 5 22</rect></_>
    <_>
      <rect>
        14 18 8 22</rect></_>
    <_>
      <rect>
        14 35 6 4</rect></_>
    <_>
      <rect>
        14 55 5 4</rect></_>
    <_>
      <rect>
        16 25 7 7</rect></_>
    <_>
      <rect>
        16 25 8 8</rect></_>
    <_>
      <rect>
        18 13 9 4</rect></_>
    <_>
      <rect>
        18 46 8 6</rect></_>
    <_>
      <rect>
        18 65 9 7</rect></_>
    <_>
      <rect>
        19 2 9 21</rect></_>
    <_>
      <rect>
        19 13 7 12</rect></_>
    <_>
      <rect>
        20 56 6 4</rect></_>
    <_>
      <rect>
        21 0 8 20</rect></_>
    <_>
      <rect>
        22 15 8 6</rect></_>
    <_>
      <rect>
        23 43 8 19</rect></_>
    <_>
      <rect>
        23 56 5 4</rect></_>
    <_>
      <rect>
        24 2 8 20</rect></_>
    <_>
      <rect>
        24 39 6 3</rect></_>
    <_>
      <rect>
        28 39 5 4</rect></_>
    <_>
      <rect>
        29 30 6 12</rect></_>
    <_>
      <rect>
        32 26 5 19</rect></_>
    <_>
      <rect>
        33 25 4 6</rect></_>
    <_>
      <rect>
        33 34 4 5</rect></_>
    <_>
      <rect>
        33 46 5 8</rect></_>
    <_>
      <rect>
        34 48 5 10</rect></_>
    <_>
      <rect>
        35 37 4 6</rect></_>
    <_>
      <rect>
        35 45 4 5</rect></_></features></cascade>
</opencv_storage>
